184 10
</s> 0.034019 0.018739 0.048484 0.001035 -0.029429 0.017400 -0.013627 -0.017237 -0.001454 0.035948 
cent -0.010562 -0.040036 -0.016176 -0.045150 0.002263 0.012936 0.042542 0.048595 -0.028354 0.034802 
per 0.028313 0.003085 0.039764 0.031430 -0.009892 0.033255 -0.040075 -0.025349 0.029381 -0.002957 
of 0.029845 0.025718 -0.036378 -0.011530 -0.019262 0.031316 -0.023549 -0.030503 -0.044593 -0.021272 
the 0.041165 -0.019570 -0.008921 0.013766 0.017990 0.027330 0.030102 -0.037226 0.026268 0.033222 
percent -0.030261 0.049233 -0.049494 -0.004776 0.014516 -0.047149 -0.020903 -0.039884 -0.017413 0.015067 
to -0.016478 0.007697 0.028328 -0.035602 -0.005666 0.009041 -0.031397 0.008500 -0.045226 -0.034990 
in 0.026823 0.037761 0.027439 -0.008692 -0.023098 0.011758 0.022970 -0.043954 0.032184 0.028429 
and -0.022223 0.024781 -0.020632 -0.025297 0.020319 0.026376 -0.011929 -0.041742 -0.014384 -0.008999 
for 0.005397 0.012891 -0.038533 -0.009323 -0.016711 0.027443 -0.049305 -0.035771 -0.001981 -0.039567 
are -0.002260 -0.046458 0.036553 -0.048254 -0.028548 -0.021571 0.019810 0.026907 -0.035711 -0.038187 
, 0.012882 0.024790 0.022097 0.021754 0.025947 -0.042302 0.038950 0.048967 -0.017062 0.034806 
% -0.013522 0.033324 -0.045084 0.007372 -0.024189 0.038001 -0.048832 -0.024351 0.049924 0.048493 
were 0.001340 0.042538 -0.005089 0.031295 0.018357 -0.032728 0.038634 0.026912 0.025614 -0.020356 
or 0.045204 0.037326 0.048637 0.008251 -0.048350 -0.032105 -0.032302 -0.035569 -0.044830 0.040838 
be 0.041620 0.033104 0.020791 -0.005326 0.034512 -0.014021 0.013920 0.006425 0.049235 -0.024747 
that 0.013571 0.047943 -0.028912 -0.002264 0.035241 -0.005696 -0.035177 0.030077 -0.027002 -0.034141 
have 0.021730 0.024381 -0.002611 0.049516 0.010076 -0.012129 0.042538 -0.008845 0.007870 -0.033531 
been -0.035840 0.040337 0.036518 -0.044128 -0.017852 0.014752 0.017569 0.009929 -0.000617 0.017002 
civilian 0.010697 0.048360 -0.040608 -0.042574 0.016796 -0.039931 0.037005 -0.005168 -0.016093 0.032706 
general -0.048370 0.016688 -0.040044 0.014077 0.002683 -0.017429 -0.022412 0.039042 0.020267 -0.039855 
they -0.025711 -0.000274 -0.011710 0.009728 0.034800 0.036944 0.004772 -0.018751 0.004020 -0.018181 
with -0.036277 -0.033603 -0.019824 -0.027740 -0.024979 0.010760 -0.034480 -0.046448 0.012299 -0.018335 
a 0.030414 0.033004 0.015714 -0.028026 -0.024376 -0.039576 0.032864 -0.034239 0.025290 0.043103 
which -0.034332 0.038895 0.030910 0.013024 -0.042676 0.030579 -0.027702 0.024723 0.006106 -0.026556 
males -0.009906 -0.042301 -0.036830 0.042351 0.001438 0.024972 -0.038709 -0.015044 -0.039756 0.039662 
place -0.036995 0.015001 -0.044877 0.023795 0.038969 -0.010146 -0.004706 0.023055 -0.035696 0.047573 
developed -0.039119 -0.025196 -0.044658 -0.003715 0.011141 -0.013320 0.036078 0.032761 -0.038042 -0.034608 
from 0.049892 0.012948 -0.004228 -0.006144 0.003103 -0.010576 0.004578 0.031775 0.022614 0.009596 
distributed -0.028181 -0.027057 0.028085 0.035058 0.032171 -0.022769 -0.003877 -0.010593 0.024671 -0.033377 
more 0.001293 0.020062 0.019208 0.045266 0.045896 0.009964 0.035683 0.019249 -0.002933 0.047680 
their 0.033911 -0.018313 -0.005744 0.044891 0.023675 -0.043177 0.040951 -0.035463 -0.028840 -0.004456 
military 0.011264 -0.017122 -0.038089 0.039909 -0.015604 0.040155 -0.011333 -0.012013 0.046309 -0.048610 
will -0.020416 -0.026885 0.008939 0.026690 -0.014029 -0.006764 0.045603 0.043868 -0.023532 -0.005311 
police 0.013755 -0.042584 0.007863 -0.016643 -0.045608 0.038123 -0.032586 -0.015968 -0.023418 0.024262 
reviewed 0.002429 0.013307 0.002990 0.003674 -0.047614 0.017485 -0.031231 0.000762 0.022577 0.034613 
at -0.000642 -0.027634 0.009505 -0.028086 -0.049492 -0.003935 -0.025283 -0.045991 0.009065 -0.040246 
special 0.047278 0.015113 -0.013808 -0.002245 -0.001275 -0.002836 -0.013984 0.042532 -0.018644 0.039272 
session -0.020748 0.001069 -0.019571 0.044982 -0.020711 -0.020757 0.041739 0.006808 0.004761 0.013042 
assembly 0.027136 0.047147 0.038872 -0.003383 0.020826 -0.027558 0.012788 -0.037734 0.044681 0.000756 
agenda 0.002674 -0.021996 -0.002342 0.038432 0.032015 -0.025393 -0.013288 -0.043239 0.029375 0.049705 
21 0.026991 0.004611 -0.033018 0.046728 0.000741 0.007672 0.011549 -0.016285 0.019050 0.024855 
symposium -0.009977 0.021927 0.010973 -0.031623 -0.003253 -0.019883 0.001739 -0.038779 -0.022388 -0.014449 
should 0.039153 -0.038672 0.002575 -0.004196 -0.042174 -0.037392 -0.012120 -0.017590 0.029299 0.048198 
inform -0.021669 -0.002852 0.011893 0.028022 -0.030902 0.024944 0.000184 -0.039373 -0.005336 -0.045501 
francophone -0.014754 0.009254 0.009620 0.026645 -0.001635 -0.001984 0.019409 -0.024333 -0.017219 -0.023638 
ethiopia 0.030772 0.044432 -0.026634 0.040478 0.042338 -0.001413 -0.048200 0.038835 0.028535 -0.026549 
investigating 0.041903 -0.004908 0.032981 -0.024241 -0.045661 -0.030751 0.015007 0.040705 0.017663 -0.029642 
alleged -0.043024 -0.016365 -0.042991 0.026161 -0.041559 0.035887 0.011947 0.016822 0.040651 -0.007169 
relating 0.044933 0.034768 -0.040116 0.046350 -0.025514 -0.036661 0.019369 -0.001236 -0.022082 0.040454 
conservation 0.002600 -0.006549 0.042373 -0.016815 0.021135 -0.020683 0.002012 -0.014463 -0.048430 -0.046937 
la -0.041394 -0.049677 -0.033035 -0.009762 0.011124 -0.031542 0.039535 0.005864 0.010918 0.002975 
francophonie -0.030779 -0.015506 -0.001827 0.006078 -0.040714 -0.049717 -0.025859 0.030013 0.031937 -0.027727 
shall 0.016323 0.009848 -0.027451 0.005445 0.046157 0.040077 0.017532 -0.010911 0.013869 -0.015271 
reducing 0.039023 0.033324 0.032677 0.012217 0.036747 -0.021125 0.022398 0.021620 -0.013789 -0.003923 
malaria -0.015111 -0.026611 -0.020917 -0.030897 -0.033391 0.030862 -0.003561 0.004736 -0.011957 -0.004283 
ensure -0.043583 0.017548 -0.014281 -0.002204 -0.002405 0.015049 0.028823 0.024045 0.024113 -0.025609 
decisions -0.047998 -0.001705 0.037828 -0.013989 0.025728 0.018753 -0.032334 -0.005312 0.000534 -0.006385 
conference -0.004230 -0.001806 -0.015575 0.015388 0.027750 -0.032459 -0.017482 -0.012503 0.000002 0.011109 
identify -0.043690 -0.019504 0.031491 0.041652 -0.049302 -0.045527 -0.016598 0.005820 -0.003273 0.033987 
organizations -0.026179 0.021206 0.015919 -0.028924 0.007854 0.045965 0.013788 0.034081 -0.024803 0.010208 
could 0.047056 -0.031748 -0.046362 0.010661 0.023638 0.027498 -0.031802 -0.043253 0.047069 0.008795 
uphold 0.040221 0.012182 -0.024253 0.036543 0.024373 -0.038704 -0.025647 0.020357 0.017888 -0.020469 
freedom 0.035092 -0.045914 0.027826 -0.039022 0.042257 0.036127 -0.047542 -0.027932 -0.028493 0.011594 
press -0.023333 -0.008602 0.012596 -0.012644 -0.040360 -0.029274 -0.036189 -0.049357 -0.026475 -0.046499 
conduct 0.003976 0.019598 0.033610 -0.030100 0.028764 0.049420 -0.008234 -0.045611 0.044470 -0.046207 
consultations -0.012497 0.017409 -0.019178 0.014637 0.044655 0.003640 -0.028769 0.022854 0.044075 -0.003788 
view 0.026025 0.013764 -0.027899 0.009269 -0.039852 0.016791 -0.011472 -0.045349 0.032589 -0.036744 
obtaining 0.001254 -0.015288 -0.030198 0.017655 -0.022510 -0.003417 0.027783 0.046921 -0.024174 0.043065 
senghor 0.016772 -0.031538 0.011244 0.009634 -0.026068 0.032855 -0.037034 -0.020363 -0.001155 -0.040751 
university 0.003161 0.010911 -0.039027 -0.044114 0.030974 0.039232 -0.048684 -0.033082 0.027271 0.014011 
alexandria -0.046072 0.012716 0.017461 0.006087 -0.040496 0.021191 -0.035505 -0.046318 -0.044799 0.042771 
review -0.006236 0.023073 0.028226 0.006362 0.024673 -0.009473 0.024515 0.013352 -0.032105 0.034104 
adopt 0.043184 -0.017163 0.021946 -0.025737 -0.022279 -0.030651 0.003055 -0.021862 -0.045117 0.049562 
requested 0.043081 0.024044 -0.029965 -0.048109 -0.032670 0.033799 0.002375 -0.013909 0.034500 0.040969 
united 0.022095 -0.029779 -0.009881 -0.015616 0.043771 -0.034529 -0.025301 0.023979 0.012560 0.038603 
nations -0.021571 0.042091 -0.018434 -0.049093 0.026086 0.017365 -0.027536 0.003806 -0.012337 -0.024076 
1997 0.023853 0.018476 -0.006599 0.042369 -0.040332 -0.017615 0.004174 -0.025074 0.013035 -0.035580 
1998 0.013998 0.015313 -0.026900 0.010143 0.048111 -0.015280 0.039706 0.014684 -0.019778 -0.041039 
increase -0.014595 -0.024273 -0.011425 0.027069 0.034527 0.003251 0.034411 -0.029372 -0.021686 0.018755 
all 0.018786 0.003244 0.003285 0.038720 -0.015846 -0.004276 -0.026456 0.023690 0.040953 -0.045126 
total -0.033403 -0.041236 -0.034528 0.043327 0.019246 0.014037 -0.008283 -0.049779 -0.018208 -0.037976 
rates -0.005990 -0.023950 0.005540 -0.032694 -0.004349 0.021709 0.023947 0.026492 0.039232 -0.028270 
79 0.038008 0.037738 -0.048542 -0.005202 -0.006560 -0.003993 -0.002315 0.003703 0.022890 -0.022853 
50 0.032920 0.018612 -0.011979 -0.001228 0.015403 0.004114 -0.040751 -0.010690 0.045661 -0.003247 
. -0.016966 -0.040626 -0.011783 0.029523 -0.017602 -0.049416 -0.003656 -0.001888 -0.024557 0.017807 
77 -0.027103 -0.038872 -0.019459 0.013901 0.010049 -0.023132 0.044124 -0.041561 -0.039066 0.022864 
10 0.039337 -0.013840 0.023741 0.046568 -0.037002 -0.030837 0.038073 -0.036645 0.019774 0.021143 
professional -0.014964 0.007669 -0.023956 -0.034466 -0.041873 0.019337 0.014010 0.042800 0.025977 -0.038578 
was 0.018667 0.009321 0.014966 -0.020711 -0.012200 -0.005590 -0.023358 -0.004064 0.010936 -0.016027 
attributable 0.045647 0.016656 0.005232 0.038220 -0.036304 -0.026364 -0.028526 0.019175 -0.033498 0.005130 
external 0.008864 -0.021122 0.041959 -0.013397 0.015988 0.015309 -0.022200 0.026880 -0.048825 0.021625 
such 0.015730 0.027577 0.018599 0.039943 -0.038554 -0.028085 -0.005158 0.002683 0.008005 0.042762 
mergers 0.035868 -0.021162 0.030979 0.024764 0.038068 -0.015068 -0.004173 -0.010468 0.034389 0.034661 
acquisitions -0.006044 -0.017036 0.019785 -0.002419 0.008245 0.001435 -0.019742 0.048948 -0.027319 -0.016782 
taken 0.042397 -0.031025 -0.018805 -0.022701 -0.028914 -0.007359 0.008654 0.003325 0.031529 0.046264 
countries -0.010156 0.048436 0.014589 0.044664 0.016833 -0.015648 0.037593 -0.006079 0.028859 0.038454 
grass-roots 0.031477 -0.049642 -0.049400 -0.037767 0.002888 -0.044953 0.001485 0.021778 -0.033235 0.029425 
procuratorates 0.018422 0.032739 0.003296 0.036568 -0.018766 -0.040568 0.047182 0.007977 0.014119 -0.040481 
treasury 0.041096 -0.016846 0.034393 0.012321 0.044344 0.030948 0.015372 -0.009148 -0.045313 0.031525 
bond-funded -0.001740 -0.031178 0.011838 0.021857 0.026826 0.037918 0.014451 -0.048593 0.015620 0.038686 
techniques -0.028418 -0.006350 0.014269 0.042454 -0.037791 0.048664 0.048498 0.024894 -0.008611 0.023531 
investment 0.045025 0.045864 0.001851 -0.031593 -0.046174 0.002126 0.029871 -0.005477 -0.040114 0.024290 
goods 0.042013 0.041893 -0.009929 -0.021772 0.001494 -0.021572 -0.011033 0.014767 0.033505 0.022778 
reach -0.035234 0.026487 -0.013785 -0.033283 -0.010070 -0.031986 0.001553 -0.046968 -0.003728 0.023093 
$ 0.038106 0.019908 0.021887 -0.029702 -0.028843 -0.014075 -0.017755 0.030615 0.044386 0.015259 
1.5 0.014108 -0.037886 0.030190 0.012613 -0.004735 -0.006101 0.013666 -0.011253 -0.003935 0.011381 
billion -0.006805 0.018579 0.017781 -0.032376 -0.033984 0.035378 0.024018 0.006838 0.033935 0.049016 
by 0.011954 -0.011612 -0.034705 -0.037337 -0.019162 0.018330 0.036429 -0.044465 0.007429 0.029700 
2005 -0.021894 0.027427 -0.046711 -0.027245 -0.006624 0.028619 0.003371 -0.046569 0.026287 0.020342 
3.5 0.028602 0.044326 -0.043634 0.044686 -0.049432 -0.011375 0.008429 0.027483 -0.037747 0.017793 
4.5 -0.019253 0.041630 0.018567 -0.048605 0.015005 -0.035955 -0.040041 0.029237 -0.001609 0.034565 
47.8 -0.005297 0.036192 -0.031238 -0.033918 -0.037378 -0.007345 0.045089 -0.046348 -0.041920 0.032366 
60 -0.027389 -0.029645 0.011896 -0.038001 -0.003805 -0.039661 -0.017625 0.003958 -0.048519 0.039501 
vegetables -0.031247 0.029366 0.020030 -0.003815 -0.041582 0.010041 0.007648 -0.017066 -0.028735 -0.038301 
lies -0.022377 0.004804 0.006783 0.014855 0.028025 0.046769 -0.045662 -0.007039 -0.046259 -0.020881 
central 0.005644 -0.020271 -0.049887 0.041522 0.028593 -0.039077 0.028720 -0.047929 -0.023076 0.007308 
america -0.008350 0.040493 -0.049429 -0.039914 0.018468 0.036909 0.001772 -0.008627 -0.017802 0.034563 
verification -0.033039 0.040964 -0.019476 0.011423 0.041023 -0.034068 0.042410 0.006316 0.023515 -0.049738 
y2k 0.040680 0.037398 -0.023843 -0.042944 0.036720 0.030260 -0.007270 0.044871 -0.047099 0.018729 
compliance -0.039683 -0.000186 0.015537 -0.010625 -0.043733 -0.018681 0.028414 0.037310 0.043134 -0.031464 
detainees -0.037395 0.007630 0.035755 -0.000347 -0.045267 -0.010444 -0.036116 -0.024478 0.040011 0.005390 
awaiting -0.000456 -0.033724 -0.031884 -0.006342 0.002707 -0.004431 0.020530 0.021751 -0.045924 -0.009646 
joint 0.026048 -0.022609 -0.015865 -0.020682 -0.032287 0.003234 -0.026743 -0.010008 0.001139 -0.038701 
ventures 0.048475 0.036458 0.016734 -0.025593 0.042787 0.024501 0.009711 0.015022 0.024406 -0.009946 
so 0.043500 -0.000760 0.037901 0.041239 -0.039048 0.047004 -0.049212 0.020700 -0.023243 0.023572 
amount 0.018445 -0.003634 0.015330 0.006616 -0.011200 0.045875 0.031910 0.043318 -0.017332 -0.042438 
funds -0.011685 0.034903 -0.018668 -0.030941 0.009623 -0.041152 -0.002691 -0.041053 0.003271 -0.021480 
actually 0.024968 -0.000391 0.038504 -0.046524 0.013847 -0.047944 0.002270 -0.007518 -0.006472 0.003015 
may -0.013134 -0.020895 -0.031374 -0.006816 0.020034 -0.044693 0.029092 0.001294 0.046787 -0.032918 
these -0.020581 -0.031940 -0.034273 0.031364 0.003958 0.039770 -0.037270 -0.000266 0.007966 -0.039912 
medicines -0.026774 0.018418 0.000346 0.025338 -0.009338 0.039952 -0.033276 -0.006108 -0.040869 -0.008329 
health-care 0.008427 0.022784 0.032938 -0.014367 0.032297 -0.046065 0.027589 -0.023805 -0.011809 0.040620 
end-users -0.025559 -0.036094 0.017565 0.049797 0.007768 -0.008086 0.042551 0.044308 0.017835 0.034318 
under -0.034761 0.010311 0.040417 -0.046433 0.042155 -0.031620 0.005691 -0.041340 0.042636 -0.035552 
15 0.023215 -0.000758 -0.030889 0.002355 -0.027827 -0.028015 -0.020857 -0.020779 0.034448 0.013705 
then -0.037453 0.033813 -0.010548 -0.029905 0.028924 0.027839 -0.025204 0.024923 0.012221 -0.000423 
reported 0.029347 0.022425 0.020607 0.016179 -0.012580 0.012279 -0.030644 -0.002594 -0.011299 0.025829 
being -0.033590 -0.032179 0.036892 0.019979 -0.011811 -0.042636 -0.046839 0.036059 0.018383 0.012722 
held 0.024507 -0.027803 0.004740 -0.017238 -0.040251 -0.003851 -0.038784 0.030464 -0.030357 -0.020744 
females -0.042547 -0.000147 0.023896 0.038934 0.030796 -0.009102 0.022728 0.000837 -0.035012 -0.003829 
girls 0.045010 -0.037874 0.043248 0.014671 -0.011268 -0.004006 0.011589 0.013525 0.030632 -0.019507 
it -0.044751 -0.036181 -0.026706 -0.015853 0.024744 0.010211 -0.028797 0.009675 0.018009 -0.036174 
is 0.002150 -0.013925 0.042670 -0.044986 0.043458 0.033528 0.017810 0.004517 -0.026943 -0.021431 
strategic -0.032379 -0.017519 0.005144 0.026670 0.034927 0.006333 0.043965 -0.032517 0.032113 -0.030006 
has -0.025994 0.043190 0.043342 0.030333 0.033146 -0.029777 0.028827 0.042629 0.039282 -0.024492 
prepared 0.029780 0.040848 -0.000559 0.019871 0.021443 0.030323 0.022154 0.047450 -0.023192 0.007655 
on 0.023265 0.012210 0.005257 0.018192 0.013520 0.017256 0.022685 -0.030446 -0.040963 0.027302 
basis 0.015656 0.033683 0.043913 0.040419 0.001614 -0.042868 -0.019401 -0.015997 -0.028520 -0.039929 
mission-specific 0.046741 0.031813 0.029965 -0.018706 0.012466 0.046255 0.014564 0.003766 -0.049677 0.007918 
senior 0.013946 -0.000393 0.031414 0.025248 0.000240 -0.002484 -0.034586 -0.035575 -0.038062 -0.003969 
citizens 0.025973 -0.016503 0.009450 -0.020207 0.007881 -0.011549 -0.040987 -0.028688 -0.035386 -0.021393 
capacity -0.040652 -0.010567 0.015720 0.030937 0.017184 -0.014176 0.028449 0.029257 0.040339 -0.036690 
adopted -0.036510 0.015883 0.049530 -0.031094 -0.047052 0.043085 0.035944 0.036176 -0.033987 0.036385 
without 0.002021 0.010888 0.043585 0.009111 0.025595 0.041685 -0.017731 0.011305 0.015752 -0.010094 
vote -0.042177 -0.024109 -0.017546 -0.044656 0.009971 -0.039676 -0.011840 -0.005721 0.014745 0.003364 
regular -0.043009 -0.034877 0.037431 -0.039855 -0.036100 0.040090 0.036732 0.006875 -0.007230 0.009957 
global -0.029534 -0.042746 0.008916 -0.034272 -0.035606 0.037560 -0.035820 0.004622 0.048420 -0.002531 
emissions -0.003858 -0.039215 0.013777 -0.025585 -0.030410 -0.030823 0.035465 0.003222 -0.031990 0.031872 
current 0.031968 0.014721 0.025932 -0.036383 0.027741 0.042140 -0.010995 0.049353 0.036292 -0.037046 
involve 0.007332 -0.013640 0.027542 0.008912 0.034428 0.042868 0.043272 -0.044084 0.045207 0.014551 
money 0.025558 -0.021173 0.029491 -0.044195 0.023531 -0.041035 0.048145 -0.046993 0.025959 0.041899 
used -0.044806 -0.016861 -0.023722 0.038955 -0.031597 0.032093 0.005729 -0.006755 0.045423 0.004625 
infrastructure -0.034219 -0.040885 0.010438 0.044550 0.016671 0.046839 0.020862 -0.017895 -0.016617 0.005163 
construction 0.049999 -0.007267 -0.002944 -0.044398 -0.018701 0.000880 0.040696 0.047315 -0.006206 0.026217 
41 -0.029567 0.043449 -0.033305 0.042522 -0.039442 -0.049527 -0.038580 0.001905 0.038060 0.019073 
remained 0.038996 0.008357 0.029549 -0.003095 0.038843 -0.031175 -0.049995 0.011325 -0.032169 -0.031131 
doubtful -0.037453 -0.023454 0.036509 -0.024303 -0.039777 -0.021281 -0.034507 0.022238 -0.043984 -0.024206 
had 0.049778 0.015877 0.037316 0.008712 -0.002014 0.012735 -0.019230 0.049305 -0.023229 -0.005113 
inhabitants -0.044594 0.026178 0.016441 -0.033116 -0.022968 -0.023811 -0.046835 -0.002616 0.036215 0.031591 
live 0.037054 -0.001257 -0.008752 0.008459 -0.030028 0.024868 -0.023292 0.002702 -0.024342 0.005049 
past -0.042767 -0.034273 0.011198 -0.002365 -0.021226 -0.046350 -0.046496 0.000148 -0.008251 0.041073 
satisfied -0.049584 0.038304 0.009690 0.031555 0.015764 0.022182 0.014755 -0.039091 0.016847 -0.037917 
living 0.042307 0.012567 0.014560 0.042607 0.044700 -0.014949 -0.002113 -0.037603 0.043675 0.018858 
said 0.009389 0.001771 0.003856 0.002652 -0.027808 0.037203 0.021320 -0.045363 0.014817 -0.030391 
basically -0.031963 -0.029216 -0.035166 0.008225 0.000691 -0.021485 0.008720 -0.021608 -0.001040 -0.017923 
decline -0.033687 0.005756 0.007902 0.022940 0.027846 0.005274 -0.023287 -0.044974 0.032957 0.044365 
prices -0.010831 -0.007380 -0.046704 -0.027476 0.043635 0.017526 -0.006526 -0.047914 0.041625 0.027264 
debt 0.041303 0.032994 0.020091 -0.023583 -0.035788 0.045771 -0.018596 -0.002054 0.007997 -0.040621 
relief 0.031970 -0.010561 0.001815 0.013358 -0.020540 0.012406 0.007312 -0.010971 -0.045563 -0.045564 
underweight -0.014090 -0.025567 0.033261 0.003818 0.006101 0.013781 -0.041962 0.005852 0.041948 -0.014818 
this 0.005249 -0.017399 0.001505 -0.048335 0.014452 -0.006713 -0.003182 0.012370 0.019934 0.005410 
advanced 0.007935 0.022953 -0.038723 0.043149 0.037332 -0.049139 0.016325 0.010331 -0.030937 -0.016953 
croatian -0.004742 0.013865 -0.001019 -0.015245 -0.026715 0.049604 0.036487 -0.014891 0.032288 -0.001508 
