180 10
</s> 0.034019 -0.014090 0.005756 0.009690 0.008701 -0.018701 0.042868 0.036732 0.029257 -0.028520 
% -0.010562 0.005249 -0.007380 0.014560 -0.033116 -0.039442 -0.041035 -0.035820 0.036176 -0.049677 
的 0.028310 0.007943 0.032994 0.003856 0.008459 0.038843 0.032093 0.035465 0.011305 -0.038062 
$ 0.029844 -0.004742 -0.010561 -0.035166 -0.002365 -0.039777 0.046839 -0.010995 -0.005721 -0.035386 
是 0.041165 0.018739 -0.025567 0.007902 0.031555 -0.002022 0.000880 0.043272 0.006875 0.040339 
在 -0.030243 -0.040045 -0.017387 -0.046689 0.042603 -0.022963 -0.049538 0.048136 0.004633 -0.033973 
到 -0.016478 0.003081 0.022936 0.020091 0.002652 -0.030028 -0.031175 0.005729 0.003222 0.015752 
以上 0.026833 0.025757 0.013809 0.001842 0.008227 -0.021144 -0.021292 0.020820 0.049374 0.014772 
用 -0.022223 -0.019570 0.048484 0.033261 0.022940 0.015764 0.012752 0.040696 -0.044084 -0.007230 
于 0.005397 0.049223 -0.016176 0.001505 -0.027476 0.044700 -0.023811 -0.038580 -0.046993 0.048420 
， -0.002260 0.007697 0.039756 -0.038735 -0.023583 -0.027808 0.024868 -0.049995 -0.006755 -0.031990 
人 0.012857 0.037777 -0.036453 -0.001000 0.013363 0.000722 -0.046360 -0.034554 -0.017896 0.036315 
左右 -0.013522 0.024781 -0.008921 0.001035 0.003818 0.027846 0.022182 -0.019224 0.047315 0.045207 
国家 0.001340 0.012891 -0.049459 -0.045150 -0.048335 0.043635 -0.014949 -0.046835 0.001905 0.025959 
上升 0.045223 -0.046458 0.028328 0.031435 0.043152 -0.035788 0.037203 -0.023292 0.011325 0.045423 
为 0.041620 0.024780 0.027439 -0.011534 -0.015245 -0.020540 -0.021485 -0.046496 0.022238 -0.016617 
或 0.013572 0.033332 -0.020653 0.013777 -0.029427 0.006131 0.005257 0.014742 0.049315 -0.006195 
大会 0.021730 0.042538 -0.038533 -0.004788 0.002263 0.014452 0.017526 -0.002113 -0.002616 0.038060 
法语 -0.035840 0.037327 0.036553 -0.035602 -0.009901 0.037341 0.045771 0.021320 0.002702 -0.032169 
通过 0.010697 0.033104 0.022101 -0.008692 -0.019283 -0.026715 0.012406 0.008720 0.000148 -0.043984 
、 -0.048370 0.047937 -0.045076 -0.025291 0.017988 0.017408 0.013776 -0.023290 -0.039073 -0.023230 
。 -0.025711 0.024381 -0.005089 -0.009323 0.014513 0.012936 -0.006713 -0.006526 -0.037603 0.036215 
男性 -0.036277 0.040337 0.048647 -0.048254 -0.005666 0.033255 -0.049143 -0.018596 -0.045363 -0.024342 
以下 0.030407 0.048345 0.020777 0.021755 -0.023088 0.031286 0.049581 0.007308 -0.021616 -0.008250 
和 -0.034339 0.016675 -0.028926 0.007389 0.020335 0.027385 -0.013646 -0.041984 -0.044951 0.016863 
地 -0.009906 -0.000274 -0.002611 0.031295 -0.016711 -0.047155 0.042542 -0.003182 -0.047914 0.043675 
已 -0.037021 -0.033603 0.036518 0.008268 -0.028548 0.009041 -0.040071 0.016325 -0.002054 0.014817 
分发 -0.039119 0.033001 -0.040608 -0.005326 0.025921 0.011758 -0.023538 0.036487 -0.010971 -0.001040 
给 0.049886 0.038885 -0.040070 -0.002253 -0.024176 0.026390 0.030084 -0.017266 0.005837 0.032967 
来自 -0.028174 -0.042301 -0.011710 0.049516 0.018357 0.027443 -0.020894 0.048595 0.012370 0.041625 
军事 0.001293 0.014971 -0.019824 -0.044128 -0.048382 -0.021571 -0.031397 -0.025352 0.010341 0.007997 
民警 0.033911 -0.025196 0.015712 -0.042574 0.034512 -0.042325 0.022970 -0.030505 -0.014891 -0.045563 
满意 0.011282 0.012972 0.030934 0.014073 0.035249 0.038025 -0.011886 -0.037253 -0.001436 0.042010 
" -0.020400 -0.027088 -0.036835 0.009727 0.010077 -0.032732 -0.049304 -0.039887 -0.028363 0.019932 
特别 0.013755 0.020062 -0.044849 -0.027740 -0.017852 -0.032101 0.019810 0.008500 0.029388 -0.030950 
会议 0.002429 -0.018313 -0.044658 -0.028021 0.016796 -0.014021 0.038951 -0.043954 -0.044579 0.032288 
上 -0.000642 -0.017125 -0.004229 0.013026 0.002683 -0.005697 -0.048839 -0.041749 0.026272 0.035953 
#21 0.047278 -0.026857 0.028087 0.042351 0.034800 -0.012129 0.038634 -0.035771 -0.017390 0.034802 
世纪 -0.020748 -0.042584 0.019208 0.023794 -0.024979 0.014752 -0.032330 0.026907 -0.045226 -0.002968 
议程 0.027136 0.013307 -0.005744 -0.003715 -0.024377 -0.039931 0.013920 0.048954 0.032184 -0.021282 
专题 0.002674 -0.027634 -0.038089 -0.006144 -0.042676 -0.017429 -0.035177 -0.024351 -0.014384 0.033222 
讨论 0.026991 0.015113 0.008964 0.035059 0.001438 0.036944 0.042538 0.026912 -0.001981 0.015042 
会 -0.009977 0.001069 0.007863 0.045266 0.038981 0.010760 0.017569 -0.035553 -0.035711 -0.034990 
应 0.039153 0.047147 0.002990 0.044891 0.011141 -0.039583 0.037005 0.006425 -0.017069 0.028429 
他们 -0.021669 -0.021996 0.009505 0.039909 0.003103 0.030579 -0.022412 0.030077 0.049924 -0.008999 
向 -0.014754 0.004611 -0.013808 0.026701 0.032133 0.024972 0.004772 -0.008845 0.025614 -0.039567 
埃塞 0.030772 0.021927 -0.019571 -0.016643 0.045896 -0.010122 -0.034480 0.009929 -0.044831 -0.038187 
俄 0.041903 -0.038672 0.038872 0.003674 0.023675 -0.013320 0.032862 -0.005168 0.049235 0.034795 
比亚 -0.043024 -0.002852 -0.002342 -0.028086 -0.015604 -0.010576 -0.027702 0.039042 -0.027002 0.048493 
境内 0.044933 0.009254 -0.033018 -0.002245 -0.014006 -0.022781 -0.038709 -0.018751 0.007870 -0.020356 
调查 0.002600 0.044432 0.010973 0.044982 -0.045608 0.009964 -0.004732 -0.046448 -0.000617 0.040811 
指称 -0.041394 -0.004908 0.002575 -0.003383 -0.047614 -0.043177 0.036078 -0.034245 -0.016093 -0.024747 
有关 -0.030779 -0.016365 0.011893 0.038432 -0.049492 0.040155 0.004578 0.024723 0.020267 -0.034141 
养护 0.016323 0.034768 0.009620 0.046728 -0.001275 -0.006780 -0.003875 -0.015044 0.004020 -0.033531 
共同体 0.039023 -0.006549 -0.026634 -0.031623 -0.020711 0.038123 0.035683 0.023068 0.012299 0.017002 
执行局 -0.015111 -0.049682 0.032980 -0.004192 0.020827 0.017483 0.040936 0.032749 0.025302 0.032716 
疟疾 -0.043583 -0.015506 -0.042991 0.028022 0.032015 -0.003935 -0.011333 0.031775 0.006106 -0.039855 
确保 -0.047998 0.009848 -0.040116 0.026645 0.000741 -0.002836 0.045611 -0.010607 -0.039756 -0.018181 
作出 -0.004230 0.033324 0.042373 0.040478 -0.003253 -0.020757 -0.032586 0.019249 -0.035678 -0.018335 
决定 -0.043690 -0.026611 -0.033035 -0.024241 -0.042174 -0.027558 -0.031231 -0.035463 -0.038042 0.043101 
确定 -0.026172 0.017548 -0.001827 0.026161 -0.030902 -0.025393 -0.025283 -0.012013 0.022614 -0.026556 
哪些 0.047063 -0.001705 -0.027451 0.046350 -0.001635 0.007672 -0.013984 0.043896 0.024664 0.039662 
组织 0.040221 -0.001806 0.032677 -0.016815 0.042338 -0.019883 0.041739 -0.015968 -0.002933 0.047538 
能 0.035092 -0.019504 -0.020917 -0.009762 -0.045661 -0.037392 0.012788 0.000762 -0.028840 -0.034608 
维护 -0.023333 0.021209 -0.014281 0.006078 -0.041559 0.024944 -0.013288 -0.045991 0.046309 0.009596 
新闻 0.003976 -0.031744 0.037828 0.005445 -0.025514 -0.001984 0.011549 0.042532 -0.023545 -0.033412 
自由 -0.012479 0.012182 -0.015575 0.012217 0.021135 -0.001413 0.001739 0.006808 -0.023418 0.047680 
进行 0.026025 -0.045914 0.031491 -0.030897 0.011124 -0.030751 -0.012120 -0.037734 0.022577 -0.004456 
协商 0.001254 -0.008602 0.015915 -0.002204 -0.040714 0.035887 0.000184 -0.043239 0.009065 -0.048610 
以 0.016772 0.019598 -0.046367 -0.013989 0.046157 -0.036661 0.019409 -0.016285 -0.018644 -0.005288 
期 0.003161 0.017394 -0.024253 0.015388 0.036747 -0.020683 -0.048200 -0.038779 0.004761 0.024262 
征求 -0.046072 0.013764 0.027826 0.041652 -0.033391 -0.031542 0.015007 -0.017590 0.044681 0.034613 
$亚历山大城桑戈尔 -0.006236 -0.015288 0.012596 -0.028931 -0.002405 -0.049717 0.011947 -0.039373 0.029375 -0.040246 
大学 0.043184 -0.031538 0.033610 0.010654 0.025728 0.040077 0.019369 -0.024333 0.019050 0.039272 
$审查 0.043081 0.010911 -0.019184 0.036543 0.027750 -0.021125 0.002012 0.038835 -0.022388 0.013042 
并 0.022095 0.012716 -0.027899 -0.039022 -0.049302 0.030862 0.039535 0.040705 0.029299 0.000756 
$请 -0.021571 0.023073 -0.030198 -0.012644 0.007861 0.015049 -0.025859 0.016822 -0.005336 0.049705 
联合国 0.023853 -0.017163 0.011244 -0.030100 0.023646 0.018753 0.017532 -0.001236 -0.017219 0.024855 
— 0.013998 0.024044 -0.039027 0.014652 0.024373 -0.032459 0.022398 -0.014463 0.028535 -0.014449 
79 -0.014595 -0.029779 0.017461 0.009269 0.042257 -0.045527 -0.003561 0.005864 0.017663 0.048198 
50 0.018784 0.042079 0.028230 0.017659 -0.040356 0.045973 0.028815 0.030005 0.040663 -0.045485 
77 -0.033403 0.018476 0.021946 0.009634 0.028764 0.027506 -0.032334 -0.010911 -0.022082 -0.023638 
下降 -0.005990 0.015313 -0.029965 -0.044114 0.044644 -0.038704 -0.017482 0.021620 -0.048430 -0.026549 
与 0.038008 -0.024273 -0.009881 0.006087 -0.039852 0.036127 -0.016598 0.004736 0.010918 -0.029642 
10 0.032920 0.003244 -0.018434 0.006362 -0.022510 -0.029274 0.013791 0.024045 0.031937 -0.007169 
专业 -0.016966 -0.041236 -0.006599 -0.025737 -0.026068 0.049420 -0.031800 -0.005312 0.013869 0.040454 
工作 -0.027103 -0.023950 -0.026900 -0.048109 0.030974 0.003611 -0.025647 -0.012503 -0.013789 -0.046937 
人员 0.039337 0.037738 -0.011425 -0.015616 -0.040496 0.016791 -0.047542 0.005820 -0.011957 0.002975 
人口 -0.014964 0.018612 0.003285 -0.049093 0.024673 -0.003417 -0.036189 0.034080 0.024113 -0.027727 
外部 0.018667 -0.040626 -0.034528 0.042369 -0.022279 0.032855 -0.008234 -0.043254 0.000534 -0.015271 
发生 0.045653 -0.038864 0.005540 0.010145 -0.032674 0.039264 -0.028759 0.020360 0.000026 -0.003926 
发达 0.008857 -0.013839 -0.048541 0.027071 0.043772 0.021201 -0.011474 -0.027939 -0.003261 -0.004278 
之间 0.015730 0.007669 -0.011979 0.038720 0.026086 -0.009473 0.027783 -0.049357 -0.024803 -0.025609 
基层 0.035868 0.009321 -0.011783 0.043327 -0.040332 -0.030651 -0.037034 -0.045611 0.047069 -0.006385 
检察院 -0.006044 0.016656 -0.019459 -0.032694 0.048111 0.033799 -0.048684 0.022830 0.017888 0.011109 
国债 0.042397 -0.021122 0.023741 -0.005202 0.034527 -0.034529 -0.035505 -0.045349 -0.028493 0.033987 
技术 -0.010156 0.027577 -0.023956 -0.001228 -0.015846 0.017365 0.024515 0.046921 -0.026475 0.010203 
从 0.031477 -0.021162 0.014966 0.029523 0.019246 -0.017615 0.003055 -0.020363 0.044470 0.008789 
投资品 0.018422 -0.017036 0.005232 0.013901 -0.004349 -0.015280 0.002375 -0.033082 0.044084 -0.020469 
2005年 0.041097 -0.031025 0.041959 0.046568 -0.006560 0.003251 -0.025301 -0.046318 0.032589 0.011594 
达 -0.001751 0.048436 0.018599 -0.034466 0.015403 -0.004276 -0.027536 0.013352 -0.024174 -0.046499 
15亿 -0.028418 -0.049642 0.030979 -0.020711 -0.017602 0.014037 0.004174 -0.021862 -0.001155 -0.046207 
美元 0.045025 0.032739 0.019785 0.038220 0.010049 0.021709 0.039706 -0.013909 0.027271 -0.003793 
四.五 0.042013 -0.016852 -0.018805 -0.013397 -0.037002 -0.003993 0.034411 0.023979 -0.044799 -0.036744 
47.8 -0.035234 -0.031180 0.014589 0.039943 -0.041873 0.004114 -0.026456 0.003806 -0.032105 0.043065 
60 0.038105 -0.006348 -0.049392 0.024760 -0.012207 -0.049419 -0.008281 -0.025069 -0.045117 -0.040750 
喷洒 0.014108 0.045864 0.003296 -0.002419 -0.036304 -0.023132 0.023947 0.014684 0.034500 0.014011 
蔬菜 -0.006805 0.041893 0.034391 -0.022701 0.015988 -0.030837 -0.002315 -0.029372 0.012560 0.042771 
中美洲 0.011960 0.026487 0.011845 0.044664 -0.038554 0.019337 -0.040751 0.023690 -0.012337 0.034104 
核查 -0.021894 0.019908 0.014269 -0.037767 0.038068 -0.005590 -0.003656 -0.049779 0.013035 0.049562 
符合 0.028600 -0.037886 0.001851 0.036568 0.008245 -0.026364 0.044124 0.026492 -0.019778 0.040969 
2000年 -0.019254 0.018579 -0.009929 0.012319 -0.028914 0.015309 0.038073 0.003703 -0.021686 0.038603 
要求 -0.005297 -0.011617 -0.013785 0.021867 0.016833 -0.028085 0.014010 -0.010690 0.040953 -0.024076 
增加 -0.027389 0.027427 0.021887 0.042454 0.002888 -0.015068 -0.023358 -0.001888 -0.018208 -0.035580 
尚 -0.031247 0.044305 0.030190 -0.031593 -0.018766 0.001435 -0.028526 -0.041561 0.039232 -0.041039 
等待 -0.022377 0.041627 0.017781 -0.021772 0.044322 -0.007359 -0.022200 -0.036645 0.022890 0.018755 
合资 0.005644 0.036192 -0.034712 -0.033283 0.026821 -0.015648 -0.005158 0.042800 0.045661 -0.045126 
预期 -0.008350 -0.029645 -0.046711 -0.029702 -0.037791 -0.044953 -0.004173 -0.004064 -0.024557 -0.037976 
目标 -0.033039 0.029366 -0.043644 0.012613 -0.046174 -0.040568 -0.019742 0.019175 -0.039066 -0.028270 
但 0.040680 0.004804 0.018572 -0.032376 0.001494 0.030935 0.008654 0.026880 0.019774 -0.022853 
实际 -0.039683 -0.020271 -0.031238 -0.037333 -0.010070 0.037901 0.037593 0.002683 0.025977 -0.003247 
到位 -0.037392 0.040493 0.011896 -0.027245 -0.028843 0.048664 0.001485 -0.010468 0.010936 0.017807 
金额 -0.000456 0.040964 0.020030 0.044692 -0.004735 0.002126 0.047182 0.048948 -0.033498 0.022864 
它 0.026048 0.037398 0.006783 -0.048613 -0.033984 -0.021572 0.015376 0.003325 -0.048825 0.021143 
有 0.048475 -0.000186 -0.049887 -0.033918 -0.019175 -0.031986 0.014451 -0.006079 0.008005 -0.038578 
可能 0.043500 0.007620 -0.049429 -0.038001 -0.006624 -0.014075 0.048498 0.021778 0.034389 -0.016027 
保健 0.018445 -0.033724 -0.019476 -0.003815 -0.049457 -0.006101 0.029871 0.007977 -0.027319 0.005130 
最终 -0.011681 -0.022609 -0.023843 0.014855 0.014979 0.035378 -0.011033 -0.009158 0.031529 0.021625 
用户 0.024977 0.036458 0.015537 0.041522 -0.037378 0.018310 0.001553 -0.048585 0.028859 0.042762 
年龄 -0.013134 -0.000760 0.035756 -0.039914 -0.003805 0.028619 -0.017755 0.024894 -0.033235 0.034661 
15 -0.020598 -0.003625 -0.031899 0.011427 -0.041573 -0.011378 0.013651 -0.005493 0.014102 -0.016791 
岁 -0.026774 0.034894 -0.015865 -0.042944 0.028025 -0.035966 0.024018 0.014767 -0.045315 0.046264 
80 0.008425 -0.000441 0.016713 -0.010644 0.028621 -0.007354 0.036409 -0.046953 0.015598 0.038444 
才 -0.025559 -0.020895 0.037901 -0.000357 0.018468 -0.039661 0.003371 0.030615 -0.008611 0.029425 
成立 -0.034758 -0.031941 0.015317 -0.006333 0.041027 0.010058 0.008413 -0.011280 -0.040100 -0.040451 
那时 0.023215 0.018418 -0.018677 -0.020682 0.036720 0.046769 -0.040037 0.006838 0.033505 0.031520 
就 -0.037464 0.022746 0.038503 -0.025589 -0.043731 -0.039068 0.045103 -0.044481 -0.003737 0.038690 
报道 0.029347 -0.036094 -0.031374 0.041239 -0.045282 0.036909 -0.017625 -0.046569 0.044386 0.023531 
说 -0.033590 0.010311 -0.034286 0.006616 0.002707 -0.034068 0.007648 0.027466 -0.003935 0.024290 
女性 0.024507 -0.000758 0.000346 -0.030929 -0.032287 0.030260 -0.045662 0.029231 0.033935 0.022778 
女童 -0.042547 0.033813 0.032896 -0.046528 0.042787 -0.018681 0.028720 -0.046348 0.007421 0.023093 
战略 0.045010 0.022425 0.017565 -0.006816 -0.039048 -0.010432 0.001772 0.003958 0.026287 0.015259 
根据 -0.044748 -0.032187 0.040392 0.031414 -0.011193 -0.004393 0.042400 -0.017094 -0.037737 0.011420 
特派团 0.002130 -0.027811 -0.030911 0.025346 0.009643 0.003257 -0.007288 -0.007088 -0.001648 0.049033 
特有 -0.032364 -0.000148 -0.010596 -0.014324 0.013849 0.024578 0.028389 -0.047959 -0.041897 0.029733 
老年人 -0.025994 -0.037874 0.020607 0.049797 0.020034 0.047004 -0.036116 -0.008627 -0.048519 0.020342 
服务 0.029780 -0.036176 0.036892 -0.046433 0.003941 0.045875 0.020530 0.006316 -0.028735 0.017771 
未 0.023265 -0.013956 0.004740 0.002355 -0.009338 -0.041147 -0.026743 0.044871 -0.046259 0.034553 
经 0.015656 -0.017519 0.023896 -0.029905 0.032243 -0.047949 0.009711 0.037310 -0.023076 0.032366 
表决 0.046741 0.043190 0.043248 0.016179 0.007768 -0.044693 -0.049212 -0.024509 -0.017802 0.039501 
获得 0.013946 0.040848 -0.026688 0.019979 0.042155 0.039788 0.031910 0.021751 0.023515 -0.038301 
经常 0.025973 0.012210 0.042658 -0.017238 -0.027827 0.039952 -0.002695 -0.010008 -0.047099 -0.020881 
气体 -0.040652 0.033683 0.005144 0.038934 0.028924 -0.046028 0.002273 0.015022 0.043134 0.007308 
排放量 -0.036510 0.031813 0.043342 0.014671 -0.012580 -0.008086 0.029092 0.020700 0.040016 0.034563 
根源 0.002021 -0.000393 -0.000559 -0.015852 -0.011811 -0.031620 -0.037319 0.043318 -0.045924 -0.049738 
流动 -0.042177 -0.016503 0.005257 -0.044983 -0.040251 -0.028015 -0.033276 -0.041057 0.001139 0.018729 
涉及 -0.043009 -0.010567 0.043913 0.026670 0.030796 0.027839 0.027590 -0.007523 0.024406 -0.031464 
基础 -0.029534 0.015883 0.029965 0.030333 -0.011268 0.012279 0.042551 0.001294 -0.023243 0.005392 
建设 -0.003858 0.010888 0.031414 0.019871 0.024728 -0.042636 0.005691 -0.000215 -0.017332 -0.009646 
文职 0.031968 -0.024109 0.009450 0.018192 0.043418 -0.003851 -0.020857 -0.006108 0.003265 -0.038701 
略 0.007332 -0.034877 0.015720 0.040419 0.034927 -0.009102 -0.025204 -0.023812 -0.006478 -0.009946 
降至 0.025558 -0.042746 0.049530 -0.018706 0.033146 -0.004006 -0.030644 0.044308 0.046787 0.023572 
41 -0.044806 -0.039215 0.043585 0.025248 0.021443 0.010183 -0.046839 -0.041340 0.007949 -0.042438 
则 -0.034219 0.014721 -0.017546 -0.020207 0.013520 0.033553 -0.038784 -0.020779 -0.040869 -0.021492 
持 0.049999 -0.013640 0.037431 0.030937 0.001614 0.006333 0.022728 0.024923 -0.011824 0.002997 
怀疑 -0.029567 -0.021173 0.008916 -0.031094 0.012466 -0.029777 0.011589 -0.002594 0.017835 -0.032918 
活 0.038996 -0.016861 0.013777 0.009111 0.000240 0.030323 -0.028821 0.036059 0.042636 -0.039972 
生活 -0.037453 -0.040885 0.025932 -0.044656 0.007881 0.017256 0.017816 0.030464 0.034448 -0.008329 
认为 0.049762 -0.007242 0.027508 -0.039834 0.017203 -0.042857 0.043991 0.000775 0.012210 0.040670 
基本 -0.044594 0.043449 0.029491 -0.034272 -0.047052 0.046255 0.028827 0.013525 -0.011299 0.034318 
价格 0.037054 0.008357 -0.023722 -0.025585 0.025595 -0.002484 0.022154 0.009695 0.018383 -0.035552 
下跌 -0.042767 -0.023454 0.010438 -0.036383 0.009971 -0.011549 0.022685 0.004489 -0.030357 0.013705 
债务 -0.049584 0.015875 -0.002944 0.008912 -0.036100 -0.014176 -0.019401 -0.032517 -0.035012 -0.000423 
减免 0.042307 0.026178 -0.033305 -0.044195 -0.035606 0.043085 0.014564 0.042629 0.030632 0.025829 
儿童 0.009389 -0.001257 0.029549 0.038955 -0.030410 0.041685 -0.034586 0.047450 0.018017 0.012722 
体重 -0.031963 -0.034273 0.036509 0.044550 0.027741 -0.039676 -0.040987 -0.030446 -0.026932 -0.020744 
过 -0.033674 0.038308 0.037307 -0.044376 0.034426 0.040094 0.028469 -0.016010 0.032118 -0.003832 
轻 -0.010822 0.012561 0.016440 0.042509 0.023532 0.037567 0.035934 0.003787 0.039300 -0.019518 
先进 0.041303 0.001771 -0.008752 -0.003095 -0.031597 -0.030823 -0.017731 -0.035575 -0.023192 -0.036192 
克罗地亚 0.031970 -0.029216 0.011198 -0.024303 0.016671 0.042140 -0.011840 -0.028688 -0.040963 -0.021464 
